<?xml version="1.0"?>
<opencv_storage>
<stage8>
  <maxWeakCount>27</maxWeakCount>
  <stageThreshold>-8.5471928119659424e-01</stageThreshold>
  <weakClassifiers>
    <_>
      <internalNodes>
        0 -1 26201 -7.3088519275188446e-02</internalNodes>
      <leafValues>
        5.0632912665605545e-02 -3.6186769604682922e-01</leafValues></_>
    <_>
      <internalNodes>
        0 -1 43860 -5.0934852333739400e-04</internalNodes>
      <leafValues>
        -3.9997318387031555e-01 9.3355916440486908e-02</leafValues></_>
    <_>
      <internalNodes>
        0 -1 24237 3.4302524290978909e-03</internalNodes>
      <leafValues>
        -2.5193277001380920e-01 1.7250666022300720e-01</leafValues></_>
    <_>
      <internalNodes>
        0 -1 19337 4.9653686583042145e-02</internalNodes>
      <leafValues>
        9.9998347461223602e-02 -6.0096108913421631e-01</leafValues></_>
    <_>
      <internalNodes>
        0 -1 3101 -2.0611202344298363e-03</internalNodes>
      <leafValues>
        3.5367766022682190e-01 -1.3464117050170898e-01</leafValues></_>
    <_>
      <internalNodes>
        0 -1 3101 1.5213785227388144e-03</internalNodes>
      <leafValues>
        -1.3221912086009979e-01 3.3350649476051331e-01</leafValues></_>
    <_>
      <internalNodes>
        0 -1 6605 1.4993065036833286e-02</internalNodes>
      <leafValues>
        -9.2659391462802887e-02 3.5560059547424316e-01</leafValues></_>
    <_>
      <internalNodes>
        0 -1 40722 4.7955702757462859e-04</internalNodes>
      <leafValues>
        1.1132996529340744e-01 -3.2693275809288025e-01</leafValues></_>
    <_>
      <internalNodes>
        0 -1 97 2.1780002862215042e-02</internalNodes>
      <leafValues>
        -1.2138044834136963e-01 3.3393692970275879e-01</leafValues></_>
    <_>
      <internalNodes>
        0 -1 1 2.3623746819794178e-03</internalNodes>
      <leafValues>
        6.8896695971488953e-02 -4.7744619846343994e-01</leafValues></_>
    <_>
      <internalNodes>
        0 -1 64572 5.4063694551587105e-03</internalNodes>
      <leafValues>
        -1.4913892745971680e-01 2.6009845733642578e-01</leafValues></_>
    <_>
      <internalNodes>
        0 -1 20060 1.0588021576404572e-01</internalNodes>
      <leafValues>
        7.2446994483470917e-02 -8.1486600637435913e-01</leafValues></_>
    <_>
      <internalNodes>
        0 -1 38811 1.2960944324731827e-02</internalNodes>
      <leafValues>
        -2.1330572664737701e-01 1.8396146595478058e-01</leafValues></_>
    <_>
      <internalNodes>
        0 -1 59910 -4.9667153507471085e-04</internalNodes>
      <leafValues>
        -3.9190220832824707e-01 1.0438854247331619e-01</leafValues></_>
    <_>
      <internalNodes>
        0 -1 29809 5.4618518333882093e-04</internalNodes>
      <leafValues>
        -2.2314770519733429e-01 2.1681556105613708e-01</leafValues></_>
    <_>
      <internalNodes>
        0 -1 9392 -2.1750209853053093e-03</internalNodes>
      <leafValues>
        2.9568874835968018e-01 -1.3636051118373871e-01</leafValues></_>
    <_>
      <internalNodes>
        0 -1 24108 5.4184086620807648e-02</internalNodes>
      <leafValues>
        4.8968903720378876e-02 -5.9563469886779785e-01</leafValues></_>
    <_>
      <internalNodes>
        0 -1 62809 -2.8734613442793489e-04</internalNodes>
      <leafValues>
        -3.7714076042175293e-01 9.6986852586269379e-02</leafValues></_>
    <_>
      <internalNodes>
        0 -1 9740 9.1622595209628344e-04</internalNodes>
      <leafValues>
        -2.4770317971706390e-01 1.8421468138694763e-01</leafValues></_>
    <_>
      <internalNodes>
        0 -1 2006 4.4110277667641640e-03</internalNodes>
      <leafValues>
        -1.0195498168468475e-01 3.7724068760871887e-01</leafValues></_>
    <_>
      <internalNodes>
        0 -1 28761 2.8484473004937172e-02</internalNodes>
      <leafValues>
        5.0746608525514603e-02 -7.0823371410369873e-01</leafValues></_>
    <_>
      <internalNodes>
        0 -1 51184 -7.5602121651172638e-03</internalNodes>
      <leafValues>
        1.9328479468822479e-01 -2.0771533250808716e-01</leafValues></_>
    <_>
      <internalNodes>
        0 -1 10437 -1.6457155346870422e-02</internalNodes>
      <leafValues>
        3.7283203005790710e-01 -1.1084637790918350e-01</leafValues></_>
    <_>
      <internalNodes>
        0 -1 9547 -2.2236960008740425e-02</internalNodes>
      <leafValues>
        -6.2687551975250244e-01 7.2859488427639008e-02</leafValues></_>
    <_>
      <internalNodes>
        0 -1 33810 3.8102889084257185e-04</internalNodes>
      <leafValues>
        -2.2977730631828308e-01 1.6818504035472870e-01</leafValues></_>
    <_>
      <internalNodes>
        0 -1 35797 2.1686367690563202e-03</internalNodes>
      <leafValues>
        -2.5457504391670227e-01 1.6252194344997406e-01</leafValues></_>
    <_>
      <internalNodes>
        0 -1 41276 3.1361036235466599e-05</internalNodes>
      <leafValues>
        1.4703713357448578e-01 -3.2738530635833740e-01</leafValues></_></weakClassifiers></stage8>
</opencv_storage>
