<?xml version="1.0"?>
<opencv_storage>
<stage0>
  <maxWeakCount>8</maxWeakCount>
  <stageThreshold>-1.3173987865447998e+00</stageThreshold>
  <weakClassifiers>
    <_>
      <internalNodes>
        0 -1 20730 -1.0318735986948013e-01</internalNodes>
      <leafValues>
        5.0000000000000000e-01 -5.1562500000000000e-01</leafValues></_>
    <_>
      <internalNodes>
        0 -1 12672 1.8717932701110840e-01</internalNodes>
      <leafValues>
        1.4967159926891327e-01 -9.1094273328781128e-01</leafValues></_>
    <_>
      <internalNodes>
        0 -1 2431 -9.1051153838634491e-02</internalNodes>
      <leafValues>
        -8.6211186647415161e-01 1.9841933250427246e-01</leafValues></_>
    <_>
      <internalNodes>
        0 -1 2144 4.3759755790233612e-03</internalNodes>
      <leafValues>
        -4.6629741787910461e-01 2.5075256824493408e-01</leafValues></_>
    <_>
      <internalNodes>
        0 -1 4045 5.4594120010733604e-03</internalNodes>
      <leafValues>
        -3.4711211919784546e-01 3.3501636981964111e-01</leafValues></_>
    <_>
      <internalNodes>
        0 -1 47018 -3.4560849599074572e-05</internalNodes>
      <leafValues>
        -5.6223565340042114e-01 2.0977742969989777e-01</leafValues></_>
    <_>
      <internalNodes>
        0 -1 32668 -2.9869873076677322e-02</internalNodes>
      <leafValues>
        -6.2896996736526489e-01 1.7170003056526184e-01</leafValues></_>
    <_>
      <internalNodes>
        0 -1 43860 -3.1495277653448284e-05</internalNodes>
      <leafValues>
        -5.4111397266387939e-01 1.7262190580368042e-01</leafValues></_></weakClassifiers></stage0>
</opencv_storage>
