<?xml version="1.0"?>
<opencv_storage>
<stage5>
  <maxWeakCount>17</maxWeakCount>
  <stageThreshold>-1.0528726577758789e+00</stageThreshold>
  <weakClassifiers>
    <_>
      <internalNodes>
        0 -1 56001 9.2530716210603714e-03</internalNodes>
      <leafValues>
        -5.3900706768035889e-01 -6.7278288304805756e-02</leafValues></_>
    <_>
      <internalNodes>
        0 -1 8274 1.5830895304679871e-01</internalNodes>
      <leafValues>
        5.0857987254858017e-02 -8.8507056236267090e-01</leafValues></_>
    <_>
      <internalNodes>
        0 -1 3088 -4.2663875967264175e-02</internalNodes>
      <leafValues>
        -7.4300909042358398e-01 1.1020003259181976e-01</leafValues></_>
    <_>
      <internalNodes>
        0 -1 41571 -4.9328461289405823e-02</internalNodes>
      <leafValues>
        -8.3874666690826416e-01 6.8837970495223999e-02</leafValues></_>
    <_>
      <internalNodes>
        0 -1 14671 3.0489925295114517e-02</internalNodes>
      <leafValues>
        -3.9740976691246033e-01 1.5757741034030914e-01</leafValues></_>
    <_>
      <internalNodes>
        0 -1 8588 5.0013740547001362e-03</internalNodes>
      <leafValues>
        -3.6137557029724121e-01 1.8261924386024475e-01</leafValues></_>
    <_>
      <internalNodes>
        0 -1 19216 3.7628235295414925e-03</internalNodes>
      <leafValues>
        -2.7241834998130798e-01 2.2896651923656464e-01</leafValues></_>
    <_>
      <internalNodes>
        0 -1 17570 3.9387280121445656e-03</internalNodes>
      <leafValues>
        -2.9219308495521545e-01 2.1952535212039948e-01</leafValues></_>
    <_>
      <internalNodes>
        0 -1 47729 -6.0973008658038452e-05</internalNodes>
      <leafValues>
        -4.4116881489753723e-01 1.3983757793903351e-01</leafValues></_>
    <_>
      <internalNodes>
        0 -1 66628 -1.9782176241278648e-02</internalNodes>
      <leafValues>
        4.5859476923942566e-01 -1.4101070165634155e-01</leafValues></_>
    <_>
      <internalNodes>
        0 -1 29567 2.9675448313355446e-03</internalNodes>
      <leafValues>
        -2.5605908036231995e-01 2.7009448409080505e-01</leafValues></_>
    <_>
      <internalNodes>
        0 -1 39063 -3.9491467759944499e-04</internalNodes>
      <leafValues>
        -4.3315953016281128e-01 1.5919725596904755e-01</leafValues></_>
    <_>
      <internalNodes>
        0 -1 49500 5.0846450030803680e-02</internalNodes>
      <leafValues>
        5.7596839964389801e-02 -8.3372759819030762e-01</leafValues></_>
    <_>
      <internalNodes>
        0 -1 10302 2.4606310762465000e-03</internalNodes>
      <leafValues>
        -1.4741648733615875e-01 4.3668285012245178e-01</leafValues></_>
    <_>
      <internalNodes>
        0 -1 11900 1.4931839704513550e-01</internalNodes>
      <leafValues>
        1.0081224143505096e-01 -6.6338729858398438e-01</leafValues></_>
    <_>
      <internalNodes>
        0 -1 54000 1.2992324773222208e-03</internalNodes>
      <leafValues>
        -2.7722531557083130e-01 2.1582439541816711e-01</leafValues></_>
    <_>
      <internalNodes>
        0 -1 28349 -3.3913493156433105e-02</internalNodes>
      <leafValues>
        -9.3488228321075439e-01 6.3011728227138519e-02</leafValues></_></weakClassifiers></stage5>
</opencv_storage>
