<?xml version="1.0"?>
<opencv_storage>
<stage0>
  <maxWeakCount>7</maxWeakCount>
  <stageThreshold>-1.3634699583053589e+00</stageThreshold>
  <weakClassifiers>
    <_>
      <internalNodes>
        0 -1 10289 -8.1933721899986267e-02</internalNodes>
      <leafValues>
        4.0148699283599854e-01 -7.4428272247314453e-01</leafValues></_>
    <_>
      <internalNodes>
        0 -1 24552 -2.9551233164966106e-03</internalNodes>
      <leafValues>
        1.7564016580581665e-01 -7.3737299442291260e-01</leafValues></_>
    <_>
      <internalNodes>
        0 -1 14196 4.5631609857082367e-02</internalNodes>
      <leafValues>
        1.4263695478439331e-01 -9.1429734230041504e-01</leafValues></_>
    <_>
      <internalNodes>
        0 -1 3171 5.7732732966542244e-03</internalNodes>
      <leafValues>
        -3.7921497225761414e-01 4.1019096970558167e-01</leafValues></_>
    <_>
      <internalNodes>
        0 -1 68311 -8.5279382765293121e-03</internalNodes>
      <leafValues>
        5.4557895660400391e-01 -2.8406703472137451e-01</leafValues></_>
    <_>
      <internalNodes>
        0 -1 2614 1.5562603948637843e-03</internalNodes>
      <leafValues>
        -3.0745875835418701e-01 4.6427682042121887e-01</leafValues></_>
    <_>
      <internalNodes>
        0 -1 7318 -8.9051604270935059e-02</internalNodes>
      <leafValues>
        -8.5802078247070312e-01 1.7455396056175232e-01</leafValues></_></weakClassifiers></stage0>
</opencv_storage>
