<?xml version="1.0"?>
<opencv_storage>
<stage8>
  <maxWeakCount>25</maxWeakCount>
  <stageThreshold>-8.7645733356475830e-01</stageThreshold>
  <weakClassifiers>
    <_>
      <internalNodes>
        0 -1 475 2.3588785529136658e-01</internalNodes>
      <leafValues>
        -3.3544805645942688e-01 1.8766066431999207e-01</leafValues></_>
    <_>
      <internalNodes>
        0 -1 3150 2.2731947246938944e-03</internalNodes>
      <leafValues>
        -2.8633970022201538e-01 1.3371349871158600e-01</leafValues></_>
    <_>
      <internalNodes>
        0 -1 716 -6.6397726186551154e-05</internalNodes>
      <leafValues>
        -2.9637637734413147e-01 1.3660097122192383e-01</leafValues></_>
    <_>
      <internalNodes>
        0 -1 1572 -3.4822467714548111e-03</internalNodes>
      <leafValues>
        2.8698754310607910e-01 -1.3439275324344635e-01</leafValues></_>
    <_>
      <internalNodes>
        0 -1 68452 -1.2279377318918705e-02</internalNodes>
      <leafValues>
        2.3433649539947510e-01 -1.7993998527526855e-01</leafValues></_>
    <_>
      <internalNodes>
        0 -1 19032 1.1989772319793701e-01</internalNodes>
      <leafValues>
        5.2482862025499344e-02 -8.9732301235198975e-01</leafValues></_>
    <_>
      <internalNodes>
        0 -1 42665 1.6482480568811297e-03</internalNodes>
      <leafValues>
        -1.8357881903648376e-01 2.3124928772449493e-01</leafValues></_>
    <_>
      <internalNodes>
        0 -1 68631 -2.6340911063016392e-05</internalNodes>
      <leafValues>
        -2.6525834202766418e-01 1.6226905584335327e-01</leafValues></_>
    <_>
      <internalNodes>
        0 -1 37895 -3.6797162465518340e-05</internalNodes>
      <leafValues>
        -3.5213211178779602e-01 8.3269566297531128e-02</leafValues></_>
    <_>
      <internalNodes>
        0 -1 3619 1.0949913412332535e-03</internalNodes>
      <leafValues>
        -1.6371406614780426e-01 2.1626138687133789e-01</leafValues></_>
    <_>
      <internalNodes>
        0 -1 54863 5.2928077057003975e-03</internalNodes>
      <leafValues>
        -1.2309730798006058e-01 3.1802007555961609e-01</leafValues></_>
    <_>
      <internalNodes>
        0 -1 32142 6.7487120628356934e-02</internalNodes>
      <leafValues>
        6.2906220555305481e-02 -5.7264006137847900e-01</leafValues></_>
    <_>
      <internalNodes>
        0 -1 6449 7.5051203370094299e-02</internalNodes>
      <leafValues>
        6.2725037336349487e-02 -5.7210570573806763e-01</leafValues></_>
    <_>
      <internalNodes>
        0 -1 28313 1.1927189677953720e-01</internalNodes>
      <leafValues>
        4.0045030415058136e-02 -8.8222151994705200e-01</leafValues></_>
    <_>
      <internalNodes>
        0 -1 13905 1.6302044969052076e-03</internalNodes>
      <leafValues>
        -2.2574959695339203e-01 1.5972943603992462e-01</leafValues></_>
    <_>
      <internalNodes>
        0 -1 16484 1.1573579162359238e-02</internalNodes>
      <leafValues>
        -2.1227312088012695e-01 1.7781989276409149e-01</leafValues></_>
    <_>
      <internalNodes>
        0 -1 8475 -7.4804835021495819e-02</internalNodes>
      <leafValues>
        -7.1282500028610229e-01 5.3096238523721695e-02</leafValues></_>
    <_>
      <internalNodes>
        0 -1 66040 4.2978185229003429e-03</internalNodes>
      <leafValues>
        -1.8100132048130035e-01 2.3169441521167755e-01</leafValues></_>
    <_>
      <internalNodes>
        0 -1 64668 -8.2091763033531606e-05</internalNodes>
      <leafValues>
        -3.4566211700439453e-01 1.3207988440990448e-01</leafValues></_>
    <_>
      <internalNodes>
        0 -1 44286 1.8227526918053627e-02</internalNodes>
      <leafValues>
        -1.0669159144163132e-01 4.1993001103401184e-01</leafValues></_>
    <_>
      <internalNodes>
        0 -1 30224 7.5762504711747169e-03</internalNodes>
      <leafValues>
        -1.3638986647129059e-01 2.7855876088142395e-01</leafValues></_>
    <_>
      <internalNodes>
        0 -1 44352 3.4318768884986639e-03</internalNodes>
      <leafValues>
        -1.9230251014232635e-01 2.0003139972686768e-01</leafValues></_>
    <_>
      <internalNodes>
        0 -1 6920 5.4872164037078619e-04</internalNodes>
      <leafValues>
        -1.8600226938724518e-01 2.0855732262134552e-01</leafValues></_>
    <_>
      <internalNodes>
        0 -1 65141 1.2727477587759495e-04</internalNodes>
      <leafValues>
        -2.0108292996883392e-01 1.7992864549160004e-01</leafValues></_>
    <_>
      <internalNodes>
        0 -1 36357 -3.3151803072541952e-03</internalNodes>
      <leafValues>
        -5.7146835327148438e-01 6.6221378743648529e-02</leafValues></_></weakClassifiers></stage8>
</opencv_storage>
