<?xml version="1.0"?>
<opencv_storage>
<stage1>
  <maxWeakCount>12</maxWeakCount>
  <stageThreshold>-1.2132928371429443e+00</stageThreshold>
  <weakClassifiers>
    <_>
      <internalNodes>
        0 -1 2142 6.7187258973717690e-03</internalNodes>
      <leafValues>
        -5.6512141227722168e-01 2.1774193644523621e-01</leafValues></_>
    <_>
      <internalNodes>
        0 -1 21079 -2.3803003132343292e-02</internalNodes>
      <leafValues>
        3.3845239877700806e-01 -4.0118610858917236e-01</leafValues></_>
    <_>
      <internalNodes>
        0 -1 18336 2.3204106092453003e-01</internalNodes>
      <leafValues>
        1.0659157484769821e-01 -8.6936587095260620e-01</leafValues></_>
    <_>
      <internalNodes>
        0 -1 46368 2.1075406111776829e-03</internalNodes>
      <leafValues>
        -3.8431149721145630e-01 2.8099471330642700e-01</leafValues></_>
    <_>
      <internalNodes>
        0 -1 68384 -4.7855023294687271e-03</internalNodes>
      <leafValues>
        3.3423236012458801e-01 -2.5636231899261475e-01</leafValues></_>
    <_>
      <internalNodes>
        0 -1 7491 9.4551738584414124e-05</internalNodes>
      <leafValues>
        -3.6502262949943542e-01 2.3317833244800568e-01</leafValues></_>
    <_>
      <internalNodes>
        0 -1 64816 -1.4980466221459210e-04</internalNodes>
      <leafValues>
        -4.4154420495033264e-01 2.0765420794487000e-01</leafValues></_>
    <_>
      <internalNodes>
        0 -1 44200 2.6130715850740671e-03</internalNodes>
      <leafValues>
        -2.0937965810298920e-01 4.6197342872619629e-01</leafValues></_>
    <_>
      <internalNodes>
        0 -1 43860 -1.2727905414067209e-04</internalNodes>
      <leafValues>
        -4.2519968748092651e-01 2.4251097440719604e-01</leafValues></_>
    <_>
      <internalNodes>
        0 -1 9423 7.7195069752633572e-04</internalNodes>
      <leafValues>
        -3.9692351222038269e-01 1.9765846431255341e-01</leafValues></_>
    <_>
      <internalNodes>
        0 -1 2399 -6.5653622150421143e-02</internalNodes>
      <leafValues>
        -7.8384983539581299e-01 1.2048048526048660e-01</leafValues></_>
    <_>
      <internalNodes>
        0 -1 68126 5.3758151829242706e-02</internalNodes>
      <leafValues>
        8.1074573099613190e-02 -8.2597112655639648e-01</leafValues></_></weakClassifiers></stage1>
</opencv_storage>
